digraph Tree {
node [shape=box, style="filled", color="black"] ;
0 [label="total_price_including_optional_support <= 782.6\ngini = 0.403\nsamples = 100\nvalue = [28, 72]", fillcolor="#399de59c"] ;
1 [label="D_school_city_Indianapolis <= 0.5\ngini = 0.317\nsamples = 81\nvalue = [16, 65]", fillcolor="#399de5c0"] ;
0 -> 1 [labeldistance=2.5, labelangle=45, headlabel="True"] ;
2 [label="D_secondary_focus_subject_Applied Sciences <= 0.5\ngini = 0.292\nsamples = 79\nvalue = [14, 65]", fillcolor="#399de5c8"] ;
1 -> 2 ;
3 [label="D_school_state_WI <= 0.5\ngini = 0.253\nsamples = 74\nvalue = [11, 63]", fillcolor="#399de5d2"] ;
2 -> 3 ;
4 [label="D_secondary_focus_subject_Community Service <= 0.5\ngini = 0.236\nsamples = 73\nvalue = [10, 63]", fillcolor="#399de5d7"] ;
3 -> 4 ;
5 [label="gini = 0.219\nsamples = 72\nvalue = [9, 63]", fillcolor="#399de5db"] ;
4 -> 5 ;
6 [label="gini = 0.0\nsamples = 1\nvalue = [1, 0]", fillcolor="#e58139ff"] ;
4 -> 6 ;
7 [label="gini = 0.0\nsamples = 1\nvalue = [1, 0]", fillcolor="#e58139ff"] ;
3 -> 7 ;
8 [label="D_grade_level_Grades 3-5 <= 0.5\ngini = 0.48\nsamples = 5\nvalue = [3, 2]", fillcolor="#e5813955"] ;
2 -> 8 ;
9 [label="total_price_including_optional_support <= 573.04\ngini = 0.444\nsamples = 3\nvalue = [1, 2]", fillcolor="#399de57f"] ;
8 -> 9 ;
10 [label="gini = 0.0\nsamples = 2\nvalue = [0, 2]", fillcolor="#399de5ff"] ;
9 -> 10 ;
11 [label="gini = 0.0\nsamples = 1\nvalue = [1, 0]", fillcolor="#e58139ff"] ;
9 -> 11 ;
12 [label="gini = 0.0\nsamples = 2\nvalue = [2, 0]", fillcolor="#e58139ff"] ;
8 -> 12 ;
13 [label="gini = 0.0\nsamples = 2\nvalue = [2, 0]", fillcolor="#e58139ff"] ;
1 -> 13 ;
14 [label="D_school_metro_urban <= 0.5\ngini = 0.465\nsamples = 19\nvalue = [12, 7]", fillcolor="#e581396a"] ;
0 -> 14 [labeldistance=2.5, labelangle=-45, headlabel="False"] ;
15 [label="gini = 0.0\nsamples = 10\nvalue = [10, 0]", fillcolor="#e58139ff"] ;
14 -> 15 ;
16 [label="D_school_state_OH <= 0.5\ngini = 0.346\nsamples = 9\nvalue = [2, 7]", fillcolor="#399de5b6"] ;
14 -> 16 ;
17 [label="D_secondary_focus_subject_Social Sciences <= 0.5\ngini = 0.219\nsamples = 8\nvalue = [1, 7]", fillcolor="#399de5db"] ;
16 -> 17 ;
18 [label="gini = 0.0\nsamples = 6\nvalue = [0, 6]", fillcolor="#399de5ff"] ;
17 -> 18 ;
19 [label="D_primary_focus_subject_Literature & Writing <= 0.5\ngini = 0.5\nsamples = 2\nvalue = [1, 1]", fillcolor="#e5813900"] ;
17 -> 19 ;
20 [label="gini = 0.0\nsamples = 1\nvalue = [1, 0]", fillcolor="#e58139ff"] ;
19 -> 20 ;
21 [label="gini = 0.0\nsamples = 1\nvalue = [0, 1]", fillcolor="#399de5ff"] ;
19 -> 21 ;
22 [label="gini = 0.0\nsamples = 1\nvalue = [1, 0]", fillcolor="#e58139ff"] ;
16 -> 22 ;
}